{"W0": [[0.019391940254756445, -0.05386320780481485, -0.05382656011775491, 0.04065825589463719], [0.019900688847037124, -0.029569844615452413, -0.0682650695754232, -0.0015296109749861609], [0.02174561753024945, 0.0905081643570598, -0.05072078188709167, -0.08996615557077148], [0.09682498837505632, -0.02475048832843603, 0.016076911803793194, 0.05600529160176665], [0.008229809044167799, -0.02152292640031231, 0.06263504591729296, 0.02017387034507411], [0.07860330880946477, 0.033875333105898624, 0.036274415611826004, -0.06153640625314908], [-0.01189188773792251, -0.05988011358324852, 0.05991808757812415, -0.021035846951239594], [-0.07869436959844724, -0.04293977887529179, -0.0033644622541884623, 0.0033382665504657323], [0.005288474190285851, 0.011125727478921873, -0.05762394460721228, 0.0027590248206436296], [0.10970398469982386, 0.049367721332981604, -0.042425854907427035, -0.014758834086912876], [-0.09659312151085092, -0.025660542561357726, 0.04795331837660155, 0.00940583618733792], [-0.03598148545212979, -0.017018174255583555, -0.038580848987858775, 0.01983888184210481], [-0.028104421354966894, -0.0034257016482536146, -0.027874837806613102, 0.006196882567481965], [0.01355579945859973, 0.07445393919387848, 0.027847945502009103, 0.05072365775046768], [-0.0401375664241803, 0.07198157846615819, -0.016774072872752364, -0.058523855911206124], [-0.05606950644304651, 0.04725936113701286, 0.009165458447297907, 0.038011550328916933]], "W1": [[-0.07009077623688396, -0.0572307765509681, -0.051868547664472325, -0.017378982913111747, 0.07676099157610011, 0.0076790927524689745, -0.007701025032694506, -0.02613331655037497, -0.05614136090320231, -0.01506965107481404, -0.033532361918288976, -0.0020758436967351314, 0.012140101721678093, 0.060972323925583785, -0.024140938518126365, -0.07937486952158225], [0.00715993284006378, 0.0016326860245536971, 0.09349762158457757, 0.07936537452190982, 0.020743544605190952, 0.05517071302031176, 0.010103438128811294, -0.06791465161214678, 0.06294323329330768, -0.009156202989033633, 0.021851409126284728, 0.07888341543212903, 0.008944965356225429, 0.0318479812639585, -0.028786488284521673, -0.02963597574650236], [0.015707373468087305, -0.03958681552140299, -0.07668984886394711, -0.02577785571541802, 0.0826833708997906, -0.012444387172351409, -0.023068742312192622, 0.11969546713392942, -0.049898165100918365, 0.07526355310196414, -0.10790102248295648, -0.04493111126055906, 0.0040063217428185196, -0.00020619381343182238, 0.0537788702027123, 0.1353377501300012]], "b0": [0.04854574113024799, -0.0565899599413752, -0.062414545943066974, 0.05224255748888051, 0.05730991638065189, 0.07035769652653101, -0.014819877377496014, 0.020582881162906103, -0.03167262149260986, 0.04849823400284886, -0.053381034778819794, 0.06535737353600261, 0.023275770957084493, 0.0468536851687735, 0.030961156255678263, -0.029804868852088197], "b1": [0.03895446071832359, -0.09009922396918207, 0.005400638445984019]}